tree
version=v4
num_class=1
num_tree_per_iteration=1
label_index=0
max_feature_idx=12
objective=binary sigmoid:1
feature_names=Column_0 Column_1 Column_2 Column_3 Column_4 Column_5 Column_6 Column_7 Column_8 Column_9 Column_10 Column_11 Column_12
feature_infos=[0:2] [0:2] [0:1] [0:1] [0.050000000000000003:0.92000000000000004] [-0.040000000000000001:0.040000000000000001] [-2:2] [1:66] [-0.65400000000000003:0.72999999999999998] [0.13400000000000001:0.88800000000000012] none none none
tree_sizes=667 662 658 569 568 675 568 671 569 566 674 570 569 569 576 568 567 569 985 973 882 983 979 956 883 670 984 570 877 879 985 570 877 985 566 878 569 572 883 672 570 677 573 992 570 671 995 573 570 574 680 887 571 682 779 570 575 572 889 574 678 880 572 789 783 657 678 572 572 880 663 678 574 993 573 571 889 879 666 880 564 878 563 768 670 559 669 870 562 869 562 671 875 775

Tree=0
num_leaves=5
num_cat=0
split_feature=7 5 7 8
split_gain=9.23409 4.2493 5.54764 2.14122
threshold=51.500000000000007 1.0000000180025095e-35 36.500000000000007 0.26700000000000007
decision_type=2 2 2 2
left_child=1 2 -1 -3
right_child=-2 3 -4 -5
leaf_value=0.011129814654725467 0.067918562375995389 -0.016670542870065419 -0.04535301935462422 0.0080268652957330832
leaf_weight=53.853447541594505 3.8056968301534644 47.862259536981583 3.7132337987422934 9.7653635144233686
leaf_count=215 15 192 15 39
internal_value=-2.25396e-08 -0.00280908 0.00668895 -0.0123346
internal_weight=119 115.194 57.5667 57.6276
internal_count=476 461 230 231
is_linear=0
shrinkage=1


Tree=1
num_leaves=5
num_cat=0
split_feature=7 5 7 8
split_gain=8.52183 3.82293 5.10152 1.94391
threshold=51.500000000000007 1.0000000180025095e-35 36.500000000000007 0.26700000000000007
decision_type=2 2 2 2
left_child=1 2 -1 -3
right_child=-2 3 -4 -5
leaf_value=0.010583819513779458 0.065289917435818259 -0.015855149451235326 -0.043584428213753988 0.007662941626824623
leaf_weight=53.851780533790588 3.8013112694025031 47.858934313058853 3.7113249599933615 9.765206426382063
leaf_count=215 15 192 15 39
internal_value=0 -0.00268508 0.0063214 -0.0117217
internal_weight=118.989 115.187 57.5631 57.6241
internal_count=476 461 230 231
is_linear=0
shrinkage=0.05


Tree=2
num_leaves=5
num_cat=0
split_feature=7 6 8 8
split_gain=7.87813 3.43938 5.01564 1.76514
threshold=51.500000000000007 1.5000000000000002 -0.26499999999999996 0.26700000000000007
decision_type=2 2 2 2
left_child=1 2 -1 -3
right_child=-2 3 -4 -5
leaf_value=-0.025920059903583398 0.062872105962090016 -0.01508156675070396 0.012549896258599928 0.007315693018604053
leaf_weight=9.2052967846393567 3.788864240050315 47.849603712558746 48.347702294588089 9.7647626996040326
leaf_count=37 15 192 193 39
internal_value=0 -0.0025669 0.00597385 -0.0111402
internal_weight=118.956 115.167 57.553 57.6144
internal_count=476 461 230 231
is_linear=0
shrinkage=0.05


Tree=3
num_leaves=4
num_cat=0
split_feature=7 7 7
split_gain=7.29265 3.40025 5.88676
threshold=51.500000000000007 33.500000000000007 12.500000000000002
decision_type=2 2 2
left_child=1 2 -1
right_child=-2 -3 -4
leaf_value=-0.0046746088850126944 0.060638040828009859 -0.041001170513567921 0.031012968900428668
leaf_weight=98.627309069037437 3.7693500220775595 4.4535453617572776 12.066491842269896
leaf_count=395 15 18 48
internal_value=9.53154e-07 -0.00244594 -0.000496787
internal_weight=118.917 115.147 110.694
internal_count=476 461 443
is_linear=0
shrinkage=0.05


Tree=4
num_leaves=4
num_cat=0
split_feature=7 7 7
split_gain=6.76027 3.13583 5.35305
threshold=51.500000000000007 33.500000000000007 12.500000000000002
decision_type=2 2 2
left_child=1 2 -1
right_child=-2 -3 -4
leaf_value=-0.0044433292329003121 0.058564911646308795 -0.039382870470037905 0.029594914918380712
leaf_weight=98.624977871775627 3.7436762899160376 4.4459923505783072 12.060477346181868
leaf_count=395 15 18 48
internal_value=1.82799e-05 -0.0023303 -0.000457919
internal_weight=118.875 115.131 110.685
internal_count=476 461 443
is_linear=0
shrinkage=0.05


Tree=5
num_leaves=5
num_cat=0
split_feature=7 5 4 8
split_gain=6.27498 3.03127 4.6488 1.62383
threshold=51.500000000000007 1.0000000180025095e-35 0.39200000000000007 0.26700000000000007
decision_type=2 2 2 2
left_child=1 2 -1 -3
right_child=-2 3 -4 -5
leaf_value=-0.010656920688000362 0.056633440956225779 -0.014062510257072353 0.017635969690647669 0.0073973465669180801
leaf_weight=23.934517532587051 3.7126667201519004 47.824856728315353 33.582087427377701 9.7648927867412549
leaf_count=96 15 192 134 39
internal_value=3.41314e-05 -0.00222042 0.00579602 -0.0102743
internal_weight=118.819 115.106 57.5166 57.5897
internal_count=476 461 230 231
is_linear=0
shrinkage=0.05


Tree=6
num_leaves=4
num_cat=0
split_feature=7 7 7
split_gain=5.82985 2.93468 4.78399
threshold=51.500000000000007 33.500000000000007 12.500000000000002
decision_type=2 2 2
left_child=1 2 -1
right_child=-2 -3 -4
leaf_value=-0.0040678293933582672 0.054827194809607051 -0.037983791451678336 0.028128536773913873
leaf_weight=98.594683602452278 3.6770692765712729 4.4357244074344626 12.045532405376433
leaf_count=395 15 18 48
internal_value=5.66059e-05 -0.00210769 -0.000297227
internal_weight=118.753 115.076 110.64
internal_count=476 461 443
is_linear=0
shrinkage=0.05


Tree=7
num_leaves=5
num_cat=0
split_feature=7 5 8 7
split_gain=5.42387 2.70964 4.34918 1.6061
threshold=51.500000000000007 1.0000000180025095e-35 -0.26499999999999996 11.500000000000002
decision_type=2 2 2 2
left_child=1 2 -1 -3
right_child=-2 3 -4 -5
leaf_value=-0.024116425872880744 0.053132151649244258 -0.0068502518804095846 0.011705559340875277 -0.037235635532661106
leaf_weight=9.2047183811664564 3.637558862566947 53.597959876060486 48.276293888688087 3.9633282721042624
leaf_count=37 15 215 193 16
internal_value=6.9237e-05 -0.0020089 0.00556942 -0.0096279
internal_weight=118.68 115.042 57.481 57.5613
internal_count=476 461 230 231
is_linear=0
shrinkage=0.05


Tree=8
num_leaves=4
num_cat=0
split_feature=7 7 7
split_gain=5.05508 2.77795 4.41961
threshold=51.500000000000007 33.500000000000007 19.500000000000004
decision_type=2 2 2
left_child=1 2 -1
right_child=-2 -3 -4
leaf_value=-0.0027728329620959362 0.051536235809416922 -0.036870846579109794 0.038180250995251866
leaf_weight=104.56373050808907 3.5947441309690467 4.4257193654775611 6.0251600742340079
leaf_count=419 15 18 24
internal_value=6.06703e-05 -0.00193544 -0.000174643
internal_weight=118.609 115.015 110.589
internal_count=476 461 443
is_linear=0
shrinkage=0.05


Tree=9
num_leaves=4
num_cat=0
split_feature=7 7 7
split_gain=4.71121 2.56659 4.05396
threshold=51.500000000000007 33.500000000000007 19.500000000000004
decision_type=2 2 2
left_child=1 2 -1
right_child=-2 -3 -4
leaf_value=-0.0026355805649927698 0.050029027758564715 -0.035468678389815197 0.036629499362655242
leaf_weight=104.5607263147831 3.5491732358932486 4.4105592221021643 6.0089690685272208
leaf_count=419 15 18 24
internal_value=7.70234e-05 -0.00183983 -0.000147699
internal_weight=118.529 114.98 110.57
internal_count=476 461 443
is_linear=0
shrinkage=0.05


Tree=10
num_leaves=5
num_cat=0
split_feature=7 5 8 7
split_gain=4.39453 2.42706 3.9589 1.54319
threshold=51.500000000000007 1.0000000180025095e-35 -0.26499999999999996 11.500000000000002
decision_type=2 2 2 2
left_child=1 2 -1 -3
right_child=-2 3 -4 -5
leaf_value=-0.02289687932354028 0.04860150422793006 -0.0062510746363026864 0.011287590366870132 -0.036010475807414892
leaf_weight=9.1993681192398054 3.5013370960950843 53.576883137226105 48.206634521484375 3.9572562724351874
leaf_count=37 15 215 193 16
internal_value=9.19702e-05 -0.00174906 0.00542565 -0.00896361
internal_weight=118.441 114.94 57.406 57.5341
internal_count=476 461 230 231
is_linear=0
shrinkage=0.05


Tree=11
num_leaves=4
num_cat=0
split_feature=7 7 7
split_gain=4.10647 2.43228 3.77739
threshold=51.500000000000007 33.500000000000007 12.500000000000002
decision_type=2 2 2
left_child=1 2 -1
right_child=-2 -3 -4
leaf_value=-0.0033934825761985166 0.047245795650722858 -0.034463525772476127 0.025284693564835672
leaf_weight=98.528663381934166 3.4516754895448676 4.3973365426063529 11.978737890720366
leaf_count=395 15 18 48
internal_value=8.14898e-05 -0.00168756 -4.11217e-05
internal_weight=118.356 114.905 110.507
internal_count=476 461 443
is_linear=0
shrinkage=0.05


Tree=12
num_leaves=4
num_cat=0
split_feature=7 7 7
split_gain=3.83701 2.24823 3.45164
threshold=51.500000000000007 33.500000000000007 19.500000000000004
decision_type=2 2 2
left_child=1 2 -1
right_child=-2 -3 -4
leaf_value=-0.0023219338644533678 0.045955056314842042 -0.033177656855375569 0.034011309303653536
leaf_weight=104.50986954569817 3.400580719113349 4.3786087781190863 5.9679642915725699
leaf_count=419 15 18 24
internal_value=9.04093e-05 -0.00160929 -2.68874e-05
internal_weight=118.257 114.856 110.478
internal_count=476 461 443
is_linear=0
shrinkage=0.05


Tree=13
num_leaves=4
num_cat=0
split_feature=7 8 9
split_gain=3.58696 2.30468 2.11282
threshold=51.500000000000007 0.29799999999999999 0.30550000000000005
decision_type=2 2 2
left_child=1 2 -1
right_child=-2 -3 -4
leaf_value=0.01123721408689117 0.044723260818837957 0.023431666193902453 -0.0067988244853873824
leaf_weight=18.729333847761154 3.3484020531177512 7.5318337082862845 88.546856641769409
leaf_count=75 15 30 356
internal_value=0.000103051 -0.00153008 -0.00352904
internal_weight=118.156 114.808 107.276
internal_count=476 461 431
is_linear=0
shrinkage=0.05


Tree=14
num_leaves=4
num_cat=0
split_feature=7 8 5
split_gain=3.35286 2.25137 2.3591
threshold=51.500000000000007 -0.30499999999999994 1.0000000180025095e-35
decision_type=2 2 2
left_child=1 -1 -3
right_child=-2 2 -4
leaf_value=-0.025928209460580644 0.043545147772603023 0.0081233512747948423 -0.0065826833090345581
leaf_weight=7.6882569491863242 3.2954495102167121 51.835166230797768 55.264222860336304
leaf_count=31 15 208 222
internal_value=0.000131035 -0.00143748 0.000497959
internal_weight=118.083 114.788 107.099
internal_count=476 461 430
is_linear=0
shrinkage=0.05


Tree=15
num_leaves=4
num_cat=0
split_feature=7 7 7
split_gain=3.13967 2.10335 3.13758
threshold=51.500000000000007 33.500000000000007 12.500000000000002
decision_type=2 2 2
left_child=1 2 -1
right_child=-2 -3 -4
leaf_value=-0.0029042582381388201 0.042416051075446021 -0.031971601762784227 0.023283924516728539
leaf_weight=98.473060250282288 3.2419978082180014 4.3584270775318137 11.921662971377371
leaf_count=395 15 18 48
internal_value=0.000130954 -0.0013766 6.25844e-05
internal_weight=117.995 114.753 110.395
internal_count=476 461 443
is_linear=0
shrinkage=0.05


Tree=16
num_leaves=4
num_cat=0
split_feature=7 8 9
split_gain=2.94094 2.10182 1.8103
threshold=51.500000000000007 0.29799999999999999 0.30550000000000005
decision_type=2 2 2
left_child=1 2 -1
right_child=-2 -3 -4
leaf_value=0.010441685692384696 0.041331878632383676 0.02252727207144135 -0.0062579614358716524
leaf_weight=18.70759205520153 3.1882885396480551 7.5278203636407843 88.461881458759308
leaf_count=75 15 30 356
internal_value=0.000135844 -0.00131343 -0.00322705
internal_weight=117.886 114.697 107.169
internal_count=476 461 431
is_linear=0
shrinkage=0.05


Tree=17
num_leaves=4
num_cat=0
split_feature=7 8 7
split_gain=2.7535 2.03694 2.18778
threshold=51.500000000000007 -0.30499999999999994 33.500000000000007
decision_type=2 2 2
left_child=1 -1 -3
right_child=-2 2 -4
leaf_value=-0.024550286217990741 0.040288995249537621 0.0022519481672937515 -0.030570775020625208
leaf_weight=7.6745624393224707 3.1345348656177512 102.66532768309116 4.3322499692440024
leaf_count=31 15 412 18
internal_value=0.000160355 -0.00123215 0.00060592
internal_weight=117.807 114.672 106.998
internal_count=476 461 430
is_linear=0
shrinkage=0.05


Tree=18
num_leaves=8
num_cat=0
split_feature=5 4 9 9 8 8 9
split_gain=2.65117 4.7664 4.45972 2.25909 1.22733 1.81282 0.370368
threshold=1.0000000180025095e-35 0.39200000000000007 0.30000000000000004 0.53800000000000014 0.26700000000000007 0.015999999999999976 0.46440000000000009
decision_type=2 2 2 2 2 2 2
left_child=1 2 -1 -3 5 -2 -6
right_child=4 3 -4 -5 6 -7 -8
leaf_value=0.01285427197958678 -0.0059482765766835054 0.023686673077572665 -0.028146155459106165 -0.012251416401458951 0.014854362308492129 -0.031766030393325512 -0.0030586129714524593
leaf_weight=11.474206030368807 40.274429008364677 31.224603533744812 13.13808026909828 4.2331595420837393 6.0173958539962751 7.6115973591804496 3.746027871966362
leaf_count=46 162 127 54 17 24 31 15
internal_value=0.000145292 0.00747657 -0.00908102 0.0190407 -0.00740579 -0.0107202 0.00787135
internal_weight=117.719 60.07 24.6123 35.4578 57.6495 47.886 9.76342
internal_count=476 244 100 144 232 193 39
is_linear=0
shrinkage=0.05


Tree=19
num_leaves=8
num_cat=0
split_feature=5 4 8 8 8 8 8
split_gain=2.40121 4.31831 3.19635 1.11905 1.66245 0.546829 0.265844
threshold=1.0000000180025095e-35 0.39200000000000007 -0.067999999999999963 0.26700000000000007 0.015999999999999976 0.23500000000000001 0.27500000000000008
decision_type=2 2 2 2 2 2 2
left_child=1 2 -1 4 -2 -3 -5
right_child=3 5 -4 6 -6 -7 -8
leaf_value=-0.032024499933634737 -0.0056600489170554324 0.021398432974086064 0.0042462519091295394 0.01633887503896455 -0.030409322102804892 0.0047194056809854419 0
leaf_weight=8.3573950231075305 40.260356858372688 27.675084561109543 16.236318424344063 3.7632452547550184 7.5985676497220984 7.7339242398738852 5.9997327923774719
leaf_count=34 162 113 66 15 31 31 24
internal_value=0.000119359 0.00710369 -0.00865354 -0.00706538 -0.0102338 0.0181225 0.00750968
internal_weight=117.625 60.0027 24.5937 57.6219 47.8589 35.409 9.76298
internal_count=476 244 100 232 193 144 39
is_linear=0
shrinkage=0.05


Tree=20
num_leaves=7
num_cat=0
split_feature=5 4 8 7 7 7
split_gain=2.17432 3.93017 2.92147 2.33335 1.1932 1.61005
threshold=1.0000000180025095e-35 0.39200000000000007 -0.067999999999999963 12.500000000000002 11.500000000000002 4.5000000000000009
decision_type=2 2 2 2 2 2
left_child=1 2 -1 -3 5 -2
right_child=4 3 -4 -5 -6 -7
leaf_value=-0.030636580008515903 -0.010818324401687689 0.0082406437663641342 0.0040467307865891733 0.036625939600275326 -0.029961708666541177 0.0067908653163294063
leaf_weight=8.3448203057050723 34.014321580529213 25.250829324126244 16.2343540340662 10.114633873105047 4.148601919412612 19.42899264395237
leaf_count=34 137 101 66 43 17 78
internal_value=0.000105709 0.00675789 -0.00827042 0.0172803 -0.00673005 -0.00431762
internal_weight=117.537 59.9446 24.5792 35.3655 57.5919 53.4433
internal_count=476 244 100 144 232 215
is_linear=0
shrinkage=0.05


Tree=21
num_leaves=8
num_cat=0
split_feature=5 4 9 7 9 9 9
split_gain=1.97907 3.58761 3.88648 2.14961 1.23563 6.39738 5.78557
threshold=1.0000000180025095e-35 0.39200000000000007 0.30000000000000004 12.500000000000002 0.40500000000000008 0.35300000000000004 0.42080000000000006
decision_type=2 2 2 2 2 2 2
left_child=1 2 -1 -3 5 -2 -6
right_child=4 3 -4 -5 6 -7 -8
leaf_value=0.012533171441726174 0.0076336765342408606 0.0078468635869498506 -0.0257587303469827 0.035152781529831777 0.046823541902812738 -0.064864417418685039 -0.0086164768830998013
leaf_weight=11.460090637207033 7.2342027276754362 25.242495208978653 13.101179033517836 10.055021584033964 4.2742302417755118 3.924153670668602 42.142014667391777
leaf_count=46 29 101 54 43 17 16 170
internal_value=9.417e-05 0.0064489 -0.00790509 0.0165173 -0.00642461 -0.0206891 -0.00252601
internal_weight=117.433 59.8588 24.5613 35.2975 57.5746 11.1584 46.4162
internal_count=476 244 100 144 232 45 187
is_linear=0
shrinkage=0.05


Tree=22
num_leaves=8
num_cat=0
split_feature=6 4 9 7 9 9 9
split_gain=1.80035 3.26866 3.54085 1.98135 1.15095 5.91916 5.30685
threshold=1.5000000000000002 0.39200000000000007 0.30000000000000004 12.500000000000002 0.40500000000000008 0.35300000000000004 0.42080000000000006
decision_type=2 2 2 2 2 2 2
left_child=1 2 -1 -3 5 -2 -6
right_child=4 3 -4 -5 6 -7 -8
leaf_value=0.011964316756286425 0.0072963209188682725 0.0074720197423217456 -0.024595396289790468 0.033749215371484884 0.044866079644212131 -0.062491054310292775 -0.0082000186376276277
leaf_weight=11.45246495306492 7.2364281266927701 25.233767941594124 13.082575649023054 9.9927203953266126 4.2811045944690695 3.9078966528177261 42.119567647576332
leaf_count=46 29 101 54 43 17 16 170
internal_value=9.62822e-05 0.00616564 -0.00753401 0.01579 -0.0061191 -0.0198944 -0.00235522
internal_weight=117.307 59.7615 24.535 35.2265 57.545 11.1443 46.4007
internal_count=476 244 100 144 232 45 187
is_linear=0
shrinkage=0.05


Tree=23
num_leaves=8
num_cat=0
split_feature=8 0 9 4 9 9 9
split_gain=1.66285 3.65221 2.86329 4.64231 2.93596 1.24469 0.523466
threshold=-0.19999999999999998 1.5000000000000002 0.48650000000000004 0.48500000000000004 0.54600000000000015 0.40500000000000008 0.50500000000000012
decision_type=2 2 2 2 2 2 2
left_child=1 6 3 -2 -4 -3 -1
right_child=2 5 4 -5 -6 -7 -8
leaf_value=0 0.0020612017959036667 -0.041039025762689335 -0.030489168140081731 0.035594227311733444 0.0042283593387755945 -0.0089974769407994964 0.024435429721652562
leaf_weight=3.7275572717189798 61.565821424126625 6.848773330450058 10.38452982902527 11.535799056291578 12.185854643583296 6.9106713533401489 4.00260229408741
leaf_count=15 252 28 42 46 49 28 16
internal_value=9.79725e-05 -0.012105 0.00298755 0.00782929 -0.0121487 -0.0269849 0.0138653
internal_weight=117.162 21.4896 95.672 73.1016 22.5704 13.7594 7.73016
internal_count=476 87 389 298 91 56 31
is_linear=0
shrinkage=0.05


Tree=24
num_leaves=7
num_cat=0
split_feature=5 4 9 9 7 7
split_gain=1.64892 2.80623 3.20165 1.93237 1.11269 1.38017
threshold=1.0000000180025095e-35 0.39200000000000007 0.30000000000000004 0.53800000000000014 11.500000000000002 4.5000000000000009
decision_type=2 2 2 2 2 2
left_child=1 2 -1 -3 5 -2
right_child=4 3 -4 -5 -6 -7
leaf_value=0.01171822302471137 -0.0095828150145097386 0.019222213913107047 -0.023068675105507534 -0.01379264997163329 -0.028267597624733978 0.0067270205563071854
leaf_weight=11.440468385815622 33.932378157973289 30.905510172247887 13.040993824601172 4.2328471392393103 4.1429408788681021 19.415039658546448
leaf_count=46 137 127 54 17 17 78
internal_value=8.63267e-05 0.00590554 -0.00679423 0.0148352 -0.00586074 -0.00354052
internal_weight=117.11 59.6198 24.4815 35.1384 57.4904 53.3474
internal_count=476 244 100 144 232 215
is_linear=0
shrinkage=0.05


Tree=25
num_leaves=5
num_cat=0
split_feature=8 7 9 9
split_gain=1.50194 1.33983 1.4055 1.14918
threshold=0.29799999999999999 12.500000000000002 0.44500000000000012 0.42620000000000008
decision_type=2 2 2 2
left_child=1 2 -1 -3
right_child=-2 3 -4 -5
leaf_value=-0.0104738592125465 0.020363658016972958 0.018080888041141132 0.0018068943009613338 -0.0072379678382982985
leaf_weight=43.10960790514946 7.4930099695920935 13.156518533825876 47.669030621647835 5.5640293359756461
leaf_count=174 30 57 192 23
internal_value=6.22322e-05 -0.00145346 -0.00402118 0.0103168
internal_weight=116.992 109.499 90.7786 18.7205
internal_count=476 446 366 80
is_linear=0
shrinkage=0.05


Tree=26
num_leaves=8
num_cat=0
split_feature=5 4 9 9 9 9 9
split_gain=1.48464 2.49993 2.91919 1.775 1.05007 5.55511 4.8727
threshold=1.0000000180025095e-35 0.39200000000000007 0.30000000000000004 0.53800000000000014 0.40500000000000008 0.35300000000000004 0.42080000000000006
decision_type=2 2 2 2 2 2 2
left_child=1 2 -1 -3 5 -2 -6
right_child=4 3 -4 -5 6 -7 -8
leaf_value=0.011280189108574284 0.0074890257334444465 0.018265553185723975 -0.021957416183333169 -0.013349392669293842 0.043263515454613523 -0.060214558507856314 -0.0075950737233213446
leaf_weight=11.425406962633135 7.2327832430601102 30.815967619419098 13.010069504380224 4.2336106002330771 4.2798810005187979 3.8761875033378601 42.073921576142311
leaf_count=46 29 127 54 17 17 16 170
internal_value=6.88558e-05 0.0056015 -0.0063873 0.0140437 -0.00557082 -0.0187433 -0.00197922
internal_weight=116.948 59.4851 24.4355 35.0496 57.4628 11.109 46.3538
internal_count=476 244 100 144 232 45 187
is_linear=0
shrinkage=0.05


Tree=27
num_leaves=4
num_cat=0
split_feature=8 9 9
split_gain=1.38388 1.33653 6.71787
threshold=0.29799999999999999 0.19300000000000003 0.24600000000000002
decision_type=2 2 2
left_child=1 -1 -3
right_child=-2 2 -4
leaf_value=-0.024001019569078713 0.019563587108811554 0.059839492035264168 -0.0027006196694438441
leaf_weight=5.1760141849517813 7.47496673464775 3.4831906259059897 100.66049388051033
leaf_count=21 30 14 411
internal_value=5.34458e-05 -0.00140052 -1.21213e-05
internal_weight=116.795 109.32 104.144
internal_count=476 446 425
is_linear=0
shrinkage=0.05


Tree=28
num_leaves=7
num_cat=0
split_feature=5 7 7 7 7 7
split_gain=1.33464 2.08462 3.88052 2.56876 1.00326 1.26581
threshold=1.0000000180025095e-35 12.500000000000002 6.5000000000000009 30.500000000000004 11.500000000000002 4.5000000000000009
decision_type=2 2 2 2 2 2
left_child=1 2 -1 -3 5 -2
right_child=4 3 -4 -5 -6 -7
leaf_value=0.0072634131300541487 -0.008876162149014306 0.037564886944339439 -0.028100991035132222 -0.00086514045375353553 -0.026558762329369292 0.0067518869313834239
leaf_weight=34.48353485763073 33.864933803677559 8.44865834712982 8.9220608323812467 7.5158019512891761 4.1336068809032431 19.399108737707138
leaf_count=139 137 35 36 34 17 78
internal_value=7.1375e-05 0.00532519 -0.0003623 0.0201934 -0.0052755 -0.00307265
internal_weight=116.768 59.3701 43.4056 15.9645 57.3976 53.264
internal_count=476 244 175 69 232 215
is_linear=0
shrinkage=0.05


Tree=29
num_leaves=7
num_cat=0
split_feature=8 0 8 6 8 7
split_gain=1.29191 3.29835 2.37288 1.3857 1.3571 0.0868896
threshold=-0.19999999999999998 1.5000000000000002 -1.0000000180025095e-35 1.0000000180025095e-35 0.29799999999999999 3.5000000000000004
decision_type=2 2 2 2 2 2
left_child=1 -1 3 -2 -4 -3
right_child=2 5 4 -5 -6 -7
leaf_value=0.01388641339491181 0.045446985957252509 -0.028977949773025459 -0.002296830896291202 0.0073225613801774008 0.018771473835931207 -0.01193097882137781
leaf_weight=7.7200580835342416 3.6675705164670926 9.2149165719747526 77.50448215007782 6.6704185307025909 7.4620319008827201 4.4485271275043496
leaf_count=31 15 38 317 27 30 18
internal_value=5.86648e-05 -0.0107188 0.00261491 0.0241043 -0.000191548 -0.024961
internal_weight=116.688 21.3835 95.3045 10.338 84.9665 13.6634
internal_count=476 87 389 42 347 56
is_linear=0
shrinkage=0.05


Tree=30
num_leaves=8
num_cat=0
split_feature=5 4 9 7 9 9 9
split_gain=1.18765 2.19709 2.58554 1.66512 1.03037 5.15719 4.44648
threshold=1.0000000180025095e-35 0.39200000000000007 0.24600000000000002 12.500000000000002 0.40500000000000008 0.35300000000000004 0.42080000000000006
decision_type=2 2 2 2 2 2 2
left_child=1 2 -1 -3 5 -2 -6
right_child=4 3 -4 -5 6 -7 -8
leaf_value=0.017685289116897797 0.0071822600160979886 0.0054373806238872634 -0.016410984101795808 0.029593050566686353 0.041797823612195903 -0.058188552866412918 -0.0068108917162508498
leaf_weight=6.920261666178706 7.230411693453787 25.153384953737259 17.431243687868118 9.7726486474275571 4.2758485376834861 3.8403233587741852 42.008610531687737
leaf_count=28 29 101 72 43 17 16 170
internal_value=7.35531e-05 0.00503668 -0.00620881 0.0129711 -0.00496865 -0.018022 -0.00142558
internal_weight=116.633 59.2775 24.3515 34.926 57.3552 11.0707 46.2845
internal_count=476 244 100 144 232 45 187
is_linear=0
shrinkage=0.05


Tree=31
num_leaves=4
num_cat=0
split_feature=8 9 9
split_gain=1.18486 1.36744 5.99613
threshold=0.29799999999999999 0.19300000000000003 0.24600000000000002
decision_type=2 2 2
left_child=1 -1 -3
right_child=-2 2 -4
leaf_value=-0.024146631128998636 0.018170018197723958 0.056957599337391002 -0.002396638559304966
leaf_weight=5.1636935323476783 7.4430713057517996 3.4412143081426612 100.41537842154503
leaf_count=21 30 14 411
internal_value=8.07335e-05 -0.00126274 4.67772e-05
internal_weight=116.463 109.02 103.857
internal_count=476 446 425
is_linear=0
shrinkage=0.05


Tree=32
num_leaves=7
num_cat=0
split_feature=8 9 9 4 9 9
split_gain=1.12102 3.14862 2.2354 3.98651 2.82177 1.32526
threshold=-0.19999999999999998 0.40500000000000008 0.48650000000000004 0.48500000000000004 0.54600000000000015 0.56840000000000013
decision_type=2 2 2 2 2 2
left_child=1 -1 3 -2 -4 -3
right_child=2 5 4 -5 -6 -7
leaf_value=-0.034620024596872238 0.0014240600490917727 0.013091731573296843 -0.028949848239670867 0.032586096977124106 0.0050990483004742177 -0.018360290720589968
leaf_weight=7.2290434688329723 61.157076582312584 10.38047172129154 10.338383451104166 11.45881240069866 12.166500046849249 3.6979321241378775
leaf_count=30 252 42 42 46 49 15
internal_value=9.56892e-05 -0.00995878 0.00248013 0.00678521 -0.0108959 0.00382897
internal_weight=116.428 21.3074 95.1208 72.6159 22.5049 14.0784
internal_count=476 87 389 298 91 57
is_linear=0
shrinkage=0.05


Tree=33
num_leaves=8
num_cat=0
split_feature=5 4 9 9 9 9 9
split_gain=1.09301 1.90626 2.3915 1.55806 0.952738 4.8468 4.0101
threshold=1.0000000180025095e-35 0.39200000000000007 0.30000000000000004 0.54100000000000015 0.40500000000000008 0.35300000000000004 0.42080000000000006
decision_type=2 2 2 2 2 2 2
left_child=1 2 -1 -3 5 -2 -6
right_child=4 3 -4 -5 6 -7 -8
leaf_value=0.010365437977194015 0.007014589691124281 0.0160193024612988 -0.019788142177848897 -0.014814471710067251 0.039728099069115785 -0.056513912494396905 -0.0064706165317548713
leaf_weight=11.362332150340082 7.2263331264257413 31.084621623158455 12.924491226673124 3.7330079823732367 4.2666453123092642 3.7992163747549057 41.965690553188324
leaf_count=46 29 129 54 15 17 16 170
internal_value=7.80368e-05 0.00484918 -0.00563134 0.0122525 -0.00475985 -0.0173396 -0.00135036
internal_weight=116.362 59.1045 24.2868 34.8176 57.2579 11.0255 46.2323
internal_count=476 244 100 144 232 45 187
is_linear=0
shrinkage=0.05


Tree=34
num_leaves=4
num_cat=0
split_feature=9 9 4
split_gain=1.06983 5.92529 2.48661
threshold=0.19300000000000003 0.24600000000000002 0.24500000000000002
decision_type=2 2 2
left_child=-1 -2 -3
right_child=1 2 -4
leaf_value=-0.019773996244370748 0.05650813482446191 -0.015939639584368247 0.0027047559118817
leaf_weight=5.4007836878299704 3.6518939584493628 21.489001512527466 85.646964713931084
leaf_count=22 15 88 351
internal_value=6.13804e-05 0.0012413 -0.00110146
internal_weight=116.189 110.788 107.136
internal_count=476 454 439
is_linear=0
shrinkage=0.05


Tree=35
num_leaves=7
num_cat=0
split_feature=6 7 7 7 7 7
split_gain=0.988821 1.64766 3.6422 2.3049 0.92978 1.10261
threshold=1.5000000000000002 12.500000000000002 6.5000000000000009 30.500000000000004 11.500000000000002 4.5000000000000009
decision_type=2 2 2 2 2 2
left_child=1 2 -1 -3 5 -2
right_child=4 3 -4 -5 -6 -7
leaf_value=0.0069978383735755491 -0.0078648930772424758 0.034624310393066682 -0.027289943650382155 -0.0018663338691903371 -0.025014506655342807 0.006743520645098121
leaf_weight=34.280480593442917 33.706885501742363 8.2759065926074964 8.9172646999359113 7.4697147011756888 4.1214444190263739 19.355185016989708
leaf_count=139 137 35 36 34 17 78
internal_value=6.65887e-05 0.00461452 -0.000424331 0.0179369 -0.00453411 -0.0024176
internal_weight=116.127 58.9434 43.1977 15.7456 57.1835 53.0621
internal_count=476 244 175 69 232 215
is_linear=0
shrinkage=0.05


Tree=36
num_leaves=4
num_cat=0
split_feature=9 9 4
split_gain=1.0101 5.42351 2.27934
threshold=0.19300000000000003 0.24600000000000002 0.24500000000000002
decision_type=2 2 2
left_child=-1 -2 -3
right_child=1 2 -4
leaf_value=-0.019227763356417609 0.054376698386784883 -0.015246158638471272 0.0026149739212343887
leaf_weight=5.3947712779045096 3.6016214638948432 21.458085209131241 85.585232645273209
leaf_count=22 15 88 351
internal_value=5.36778e-05 0.00120238 -0.00102719
internal_weight=116.04 110.645 107.043
internal_count=476 454 439
is_linear=0
shrinkage=0.05


Tree=37
num_leaves=4
num_cat=0
split_feature=9 9 9
split_gain=0.926778 5.05265 2.07477
threshold=0.19300000000000003 0.24600000000000002 0.26800000000000007
decision_type=2 2 2
left_child=-1 -2 -3
right_child=1 2 -4
leaf_value=-0.018397923244379808 0.052721569135691052 -0.031812436084436839 0.00052575124767217419
leaf_weight=5.4011326283216468 3.5613681823015204 4.1993613541126242 102.80999700725079
leaf_count=22 15 17 422
internal_value=5.8893e-05 0.0011621 -0.000979787
internal_weight=115.972 110.571 107.009
internal_count=476 454 439
is_linear=0
shrinkage=0.05


Tree=38
num_leaves=7
num_cat=0
split_feature=5 4 4 7 7 7
split_gain=0.903277 1.55353 1.45846 1.42949 0.866922 0.99414
threshold=1.0000000180025095e-35 0.39200000000000007 0.12200000000000001 12.500000000000002 11.500000000000002 4.5000000000000009
decision_type=2 2 2 2 2 2
left_child=1 2 -1 -3 5 -2
right_child=4 3 -4 -5 -6 -7
leaf_value=0.020888649845672035 -0.0074720394997322553 0.0041867166588516157 -0.010401816309448374 0.026663554973502254 -0.024133518927937109 0.0063983354693299271
leaf_weight=3.4591784179210689 33.679527193307877 25.073144167661667 20.680134102702141 9.5762385576963407 4.11286337673664 19.35348853468895
leaf_count=14 137 101 86 43 17 78
internal_value=5.56268e-05 0.00441211 -0.00506643 0.0111127 -0.00433891 -0.00229301
internal_weight=115.935 58.7887 24.1393 34.6494 57.1459 53.033
internal_count=476 244 100 144 232 215
is_linear=0
shrinkage=0.05


Tree=39
num_leaves=5
num_cat=0
split_feature=8 8 9 9
split_gain=0.96532 1.247 2.74658 1.967
threshold=0.29799999999999999 1.0000000180025095e-35 0.27620000000000006 0.25266666666666676
decision_type=2 2 2 2
left_child=1 3 -3 -1
right_child=-2 2 -4 -5
leaf_value=0.026128893295922953 0.016445634044821199 -0.044655880786545567 -0.0025623387649394537 -0.00056175603234630744
leaf_weight=6.5496378988027564 7.388661876320838 3.8753136694431332 21.14870648086071 76.858052924275398
leaf_count=27 30 16 87 316
internal_value=6.00871e-05 -0.00115083 -0.0107387 0.00175963
internal_weight=115.82 108.432 25.024 83.4077
internal_count=476 446 103 343
is_linear=0
shrinkage=0.05


Tree=40
num_leaves=4
num_cat=0
split_feature=9 9 4
split_gain=0.900341 4.60679 1.91387
threshold=0.19300000000000003 0.24600000000000002 0.24500000000000002
decision_type=2 2 2
left_child=-1 -2 -3
right_child=1 2 -4
leaf_value=-0.0181367025931948 0.050695972636127712 -0.013943319759228369 0.0024406942734321755
leaf_weight=5.4030099660158148 3.5041404068469992 21.402336865663528 85.487253025174141
leaf_count=22 15 88 351
internal_value=5.08429e-05 0.00114071 -0.000892338
internal_weight=115.797 110.394 106.89
internal_count=476 454 439
is_linear=0
shrinkage=0.05


Tree=41
num_leaves=5
num_cat=0
split_feature=8 8 9 9
split_gain=0.867329 1.16244 2.49894 1.73231
threshold=0.29799999999999999 1.0000000180025095e-35 0.27620000000000006 0.25266666666666676
decision_type=2 2 2 2
left_child=1 3 -3 -1
right_child=-2 2 -4 -5
leaf_value=0.024679102003945713 0.015603859932215853 -0.042691986623309919 -0.0025288520655965961 -0.00044779000327461462
leaf_weight=6.495101958513259 7.3736190944910041 3.8786799162626293 21.14885601401329 76.823932841420174
leaf_count=27 30 16 87 316
internal_value=5.56259e-05 -0.00108982 -0.0103464 0.00172113
internal_weight=115.72 108.347 25.0275 83.319
internal_count=476 446 103 343
is_linear=0
shrinkage=0.05


Tree=42
num_leaves=4
num_cat=0
split_feature=9 9 4
split_gain=0.849926 4.20715 1.71762
threshold=0.19300000000000003 0.24600000000000002 0.17000000000000001
decision_type=2 2 2
left_child=-1 -2 -3
right_child=1 2 -4
leaf_value=-0.017620768659904855 0.048796452111582574 -0.018607274587475749 0.0013592106370175442
leaf_weight=5.4044034034013739 3.4440356194972983 11.096208542585371 95.746202021837234
leaf_count=22 15 46 393
internal_value=4.64788e-05 0.00110772 -0.000821375
internal_weight=115.691 110.286 106.842
internal_count=476 454 439
is_linear=0
shrinkage=0.05


Tree=43
num_leaves=8
num_cat=0
split_feature=5 4 9 9 9 9 9
split_gain=0.853116 1.32094 1.88885 1.4009 0.863511 4.64096 3.77141
threshold=1.0000000180025095e-35 0.39200000000000007 0.30000000000000004 0.53800000000000014 0.40500000000000008 0.35300000000000004 0.42080000000000006
decision_type=2 2 2 2 2 2 2
left_child=1 2 -1 -3 5 -2 -6
right_child=4 3 -4 -5 6 -7 -8
leaf_value=0.0098163909642647231 0.0075425888500985977 0.014336010531511088 -0.017120571539454878 -0.013631824859809689 0.038896570262354026 -0.05482539448185228 -0.0059595868094303242
leaf_weight=11.192351400852205 7.1830839216709119 30.299324482679367 12.802727729082106 4.2321889996528617 4.2547959536314002 3.7522376328706741 41.902756556868553
leaf_count=46 29 127 54 17 17 16 170
internal_value=4.84193e-05 0.00429652 -0.00446591 0.0104804 -0.00421929 -0.0162393 -0.000981585
internal_weight=115.619 58.5266 23.9951 34.5315 57.0929 10.9353 46.1576
internal_count=476 244 100 144 232 45 187
is_linear=0
shrinkage=0.05


Tree=44
num_leaves=4
num_cat=0
split_feature=9 9 9
split_gain=0.81695 3.8734 1.71588
threshold=0.19300000000000003 0.24600000000000002 0.26800000000000007
decision_type=2 2 2
left_child=-1 -2 -3
right_child=1 2 -4
leaf_value=-0.017282739618142546 0.047157201006642904 -0.028820860427807529 0.00060578533239037105
leaf_weight=5.4058616906404486 3.3844494968652716 4.1938410848379126 102.45637042820454
leaf_count=22 15 17 422
internal_value=3.46006e-05 0.0010784 -0.000761899
internal_weight=115.441 110.035 106.65
internal_count=476 454 439
is_linear=0
shrinkage=0.05


Tree=45
num_leaves=5
num_cat=0
split_feature=5 8 8 8
split_gain=0.798987 3.17693 1.05167 0.587162
threshold=-1.0000000180025095e-35 -1.0000000180025095e-35 -0.30499999999999994 0.29799999999999999
decision_type=2 2 2 2
left_child=1 -1 -2 -4
right_child=2 -3 3 -5
leaf_value=0.035970482157851112 -0.019360500247122263 -0.010538429360232937 -0.0011764238812308784 0.012880492952859
leaf_weight=5.8349495083093643 6.5802150070667258 6.9618059098720533 88.916025698184967 7.0976844578981391
leaf_count=24 28 29 366 29
internal_value=3.19403e-05 0.011376 -0.00143091 0
internal_weight=115.391 12.7968 102.594 96.0137
internal_count=476 53 423 395
is_linear=0
shrinkage=0.05


Tree=46
num_leaves=8
num_cat=0
split_feature=5 9 8 9 9 9 9
split_gain=0.762351 1.28077 4.86802 2.54552 0.799543 4.34528 3.47042
threshold=1.0000000180025095e-35 0.45100000000000001 -0.040000000000000015 0.47800000000000004 0.40500000000000008 0.35300000000000004 0.42080000000000006
decision_type=2 2 2 2 2 2 2
left_child=1 2 -1 -3 5 -2 -6
right_child=4 3 -4 -5 6 -7 -8
leaf_value=-0.032075545588478277 0.0073397557622464351 0.043061100825333695 0.0080365876083619767 0.00013268606270463423 0.037409280319954531 -0.053185051246909698 -0.0056641669962895717
leaf_weight=8.5237255096435529 7.1752692908048612 4.6857480555772772 35.730211138725281 9.4150943458080274 4.2430927455425254 3.7064208537340164 41.873235836625099
leaf_count=36 29 19 151 38 17 16 170
internal_value=3.36544e-05 0.00405904 -0.000116965 0.0166359 -0.00400027 -0.015596 -0.000885061
internal_weight=115.353 58.3548 44.2539 14.1008 56.998 10.8817 46.1163
internal_count=476 244 187 57 232 45 187
is_linear=0
shrinkage=0.05


Tree=47
num_leaves=4
num_cat=0
split_feature=9 9 9
split_gain=0.777411 3.62821 1.59409
threshold=0.19300000000000003 0.24600000000000002 0.26800000000000007
decision_type=2 2 2
left_child=-1 -2 -3
right_child=1 2 -4
leaf_value=-0.016857271324578701 0.045930567008793735 -0.027778217183207433 0.00060267515851811649
leaf_weight=5.4041358530521384 3.3322580456733695 4.187307968735694 102.27773302793503
leaf_count=22 15 17 422
internal_value=3.59339e-05 0.00105717 -0.000715128
internal_weight=115.201 109.797 106.465
internal_count=476 454 439
is_linear=0
shrinkage=0.05


Tree=48
num_leaves=4
num_cat=0
split_feature=9 9 9
split_gain=0.712933 3.39718 1.4693
threshold=0.19300000000000003 0.24600000000000002 0.26800000000000007
decision_type=2 2 2
left_child=-1 -2 -3
right_child=1 2 -4
leaf_value=-0.01613780640271963 0.044703000949847825 -0.026688079019270061 0.00057282646628264761
leaf_weight=5.4073093086481085 3.281334549188613 4.1814248710870734 102.27881124615669
leaf_count=22 15 17 422
internal_value=3.32947e-05 0.00101378 -0.000689757
internal_weight=115.149 109.742 106.46
internal_count=476 454 439
is_linear=0
shrinkage=0.05


Tree=49
num_leaves=4
num_cat=0
split_feature=4 9 9
split_gain=0.734135 2.7076 2.80865
threshold=0.12200000000000001 0.19300000000000003 0.24600000000000002
decision_type=2 2 2
left_child=-1 -2 -3
right_child=1 2 -4
leaf_value=0.020039397223728637 -0.040245041862398828 0.041863582428597411 -0.00075026908018075681
leaf_weight=3.4286194741725913 3.1757061183452597 3.0081164836883536 105.48108284175396
leaf_count=14 13 14 435
internal_value=3.10099e-05 -0.000711373 0.000757195
internal_weight=115.094 111.665 108.489
internal_count=476 462 449
is_linear=0
shrinkage=0.05


Tree=50
num_leaves=5
num_cat=0
split_feature=8 8 9 4
split_gain=0.734747 1.0397 2.51607 1.97601
threshold=0.29799999999999999 1.0000000180025095e-35 0.48650000000000004 0.50500000000000012
decision_type=2 2 2 2
left_child=1 3 -3 -1
right_child=-2 2 -4 -5
leaf_value=-0.0014296175196664002 0.014409192681237012 -0.00015060552969983342 -0.035713127086023283 0.020312940286346809
leaf_weight=71.658486768603325 7.3075546175241461 19.033111795783046 5.878615513443946 11.165061831474302
leaf_count=298 30 79 24 45
internal_value=3.67581e-05 -0.00101567 -0.00978993 0.00164911
internal_weight=115.043 107.735 24.9117 82.8235
internal_count=476 446 103 343
is_linear=0
shrinkage=0.05


Tree=51
num_leaves=7
num_cat=0
split_feature=5 7 7 4 7 5
split_gain=0.704647 0.704776 2.0168 0.665131 1.76933 0.947476
threshold=-1.0000000180025095e-35 3.5000000000000004 11.500000000000002 0.24500000000000002 3.5000000000000004 1.0000000180025095e-35
decision_type=2 2 2 2 2 2
left_child=1 -1 -3 4 -2 -5
right_child=3 2 -4 5 -6 -7
leaf_value=0.026488884635693613 -0.02121454337296521 -0.021898044206303681 0.021044534658198649 0.0074521824599099841 0.0049844786283919449 -0.0035760985502292435
leaf_weight=3.713092863559722 12.118165135383608 3.8929291516542417 5.1547939479351044 31.622440487146378 11.593527048826216 46.929141595959663
leaf_count=15 51 16 22 133 48 191
internal_value=2.93827e-05 0.0106988 0.00172967 -0.00134428 -0.00851919 0.000838563
internal_weight=115.024 12.7608 9.04772 102.263 23.7117 78.5516
internal_count=476 53 38 423 99 324
is_linear=0
shrinkage=0.05


Tree=52
num_leaves=4
num_cat=0
split_feature=4 9 9
split_gain=0.690166 2.51671 2.62995
threshold=0.12200000000000001 0.19300000000000003 0.24600000000000002
decision_type=2 2 2
left_child=-1 -2 -3
right_child=1 2 -4
leaf_value=0.01944429055386479 -0.038816036532970249 0.040771686957626674 -0.0007193442099623173
leaf_weight=3.424090012907981 3.1723317950963965 2.9571616649627677 105.37612229585648
leaf_count=14 13 14 435
internal_value=3.35463e-05 -0.000685604 0.000730053
internal_weight=114.93 111.506 108.333
internal_count=476 462 449
is_linear=0
shrinkage=0.05


Tree=53
num_leaves=5
num_cat=0
split_feature=8 8 9 4
split_gain=0.670006 0.953016 2.32438 1.80257
threshold=0.29799999999999999 1.0000000180025095e-35 0.48650000000000004 0.50500000000000012
decision_type=2 2 2 2
left_child=1 3 -3 -1
right_child=-2 2 -4 -5
leaf_value=-0.0013562236901804301 0.013780751355148533 -0.00010045768359403637 -0.034327340404193531 0.019407585618918536
leaf_weight=71.545442909002304 7.289352372288703 19.012283354997638 5.8600182682275763 11.169282197952269
leaf_count=298 30 79 24 45
internal_value=3.90543e-05 -0.000964278 -0.00937283 0.0015862
internal_weight=114.876 107.587 24.8723 82.7147
internal_count=476 446 103 343
is_linear=0
shrinkage=0.05


Tree=54
num_leaves=6
num_cat=0
split_feature=9 9 9 8 8
split_gain=0.65742 1.6657 1.11132 3.93306 2.1106
threshold=0.57600000000000018 0.6170000000000001 0.45100000000000001 -0.040000000000000015 -0.039999999999999994
decision_type=2 2 2 2 2
left_child=2 -2 3 -1 -4
right_child=1 -3 4 -5 -6
leaf_value=-0.026605499736362465 -0.027853166643715732 0.005525901398511693 0.027176304331925572 0.0036853269608977074 0.00090970363037725602
leaf_weight=12.510167673230169 5.8818474262952787 7.1759073734283447 9.5899910777807218 50.334960043430328 29.359511211514473
leaf_count=53 24 29 39 212 119
internal_value=3.15431e-05 -0.0100658 0.00146074 -0.00258843 0.0080205
internal_weight=114.852 13.0578 101.795 62.8451 38.9495
internal_count=476 53 423 265 158
is_linear=0
shrinkage=0.05


Tree=55
num_leaves=4
num_cat=0
split_feature=7 7 7
split_gain=0.657161 1.29105 1.10616
threshold=48.500000000000007 33.500000000000007 20.500000000000004
decision_type=2 2 2
left_child=1 2 -1
right_child=-2 -3 -4
leaf_value=-0.00075625014395833265 0.018699679689195541 -0.026577817438848458 0.02189413285040125
leaf_weight=102.96115396916866 3.546710565686225 3.6228337585926047 4.6767399907112113
leaf_count=422 18 15 21
internal_value=2.43841e-05 -0.000687669 0.000374332
internal_weight=114.807 111.261 107.638
internal_count=476 458 443
is_linear=0
shrinkage=0.05


Tree=56
num_leaves=4
num_cat=0
split_feature=4 9 9
split_gain=0.653311 2.33376 2.46762
threshold=0.12200000000000001 0.19300000000000003 0.24600000000000002
decision_type=2 2 2
left_child=-1 -2 -3
right_child=1 2 -4
leaf_value=0.018928427300917303 -0.037403834289383833 0.039749038807604463 -0.00070340517448891176
leaf_weight=3.4172055125236502 3.1692680716514579 2.9042258113622657 105.25276449322701
leaf_count=14 13 14 435
internal_value=2.69097e-05 -0.000672115 0.000691211
internal_weight=114.743 111.326 108.157
internal_count=476 462 449
is_linear=0
shrinkage=0.05


Tree=57
num_leaves=4
num_cat=0
split_feature=9 9 9
split_gain=0.635704 1.14372 2.03289
threshold=0.70700000000000018 0.61100000000000021 0.57600000000000018
decision_type=2 2 2
left_child=1 2 -1
right_child=-2 -3 -4
leaf_value=0.0013944804562127794 -0.017937353915926119 0.023753537520546333 -0.028186659246696267
leaf_weight=101.64129056036472 3.6994011998176566 4.1941986978054038 5.153119668364524
leaf_count=423 15 17 21
internal_value=3.26841e-05 0.00083112 -0.000234749
internal_weight=114.688 110.989 106.794
internal_count=476 461 444
is_linear=0
shrinkage=0.05


Tree=58
num_leaves=7
num_cat=0
split_feature=5 9 8 9 7 9
split_gain=0.6156 1.19393 4.18074 2.20905 0.821133 0.951312
threshold=1.0000000180025095e-35 0.45100000000000001 -0.040000000000000015 0.47800000000000004 11.500000000000002 0.48940000000000011
decision_type=2 2 2 2 2 2
left_child=1 2 -1 -3 5 -2
right_child=4 3 -4 -5 -6 -7
leaf_value=-0.030183288650928883 0.0035856773477257148 0.040519158912373419 0.0071860513157070956 0.00038222920202390438 -0.022862375264799107 -0.0098894499071332867
leaf_weight=8.4171015769243223 32.340844139456749 4.6570834517478934 35.397714510560036 9.405945882201193 4.0945274978876105 20.367620423436165
leaf_count=36 132 19 151 38 17 83
internal_value=1.96832e-05 0.00366037 -0.000394585 0.0158134 -0.00360254 -0.00161547
internal_weight=114.681 57.8778 43.8148 14.063 56.803 52.7085
internal_count=476 244 187 57 232 215
is_linear=0
shrinkage=0.05


Tree=59
num_leaves=4
num_cat=0
split_feature=4 9 9
split_gain=0.610897 2.18292 2.32359
threshold=0.12200000000000001 0.19300000000000003 0.24600000000000002
decision_type=2 2 2
left_child=-1 -2 -3
right_child=1 2 -4
leaf_value=0.018312286210297575 -0.036202761643545418 0.038805131517486609 -0.00068731904828851136
leaf_weight=3.408269226551055 3.1652761548757544 2.8556250780820838 105.14637710154057
leaf_count=14 13 14 435
internal_value=1.37797e-05 -0.000660914 0.000657434
internal_weight=114.576 111.167 108.002
internal_count=476 462 449
is_linear=0
shrinkage=0.05


Tree=60
num_leaves=5
num_cat=0
split_feature=8 8 9 4
split_gain=0.596209 0.879023 2.19559 1.7542
threshold=0.29799999999999999 1.0000000180025095e-35 0.27620000000000006 0.50500000000000012
decision_type=2 2 2 2
left_child=1 3 -3 -1
right_child=-2 2 -4 -5
leaf_value=-0.0013848668647681345 0.01300666625721331 -0.039558391906995616 -0.0016995390437615197 0.019104872827290415
leaf_weight=71.297817304730415 7.2631104886531821 3.8064370155334499 20.983529925346375 11.167555943131445
leaf_count=298 30 16 87 45
internal_value=2.00443e-05 -0.00092522 -0.00901501 0.00152562
internal_weight=114.518 107.255 24.79 82.4654
internal_count=476 446 103 343
is_linear=0
shrinkage=0.05


Tree=61
num_leaves=7
num_cat=0
split_feature=9 9 9 8 9 8
split_gain=0.65444 2.7993 2.27399 2.03029 1.94536 0.837339
threshold=0.30550000000000005 0.27620000000000006 0.40500000000000008 0.015999999999999976 0.41280000000000011 -0.05000000000000001
decision_type=2 2 2 2 2 2
left_child=1 3 5 -1 -4 -2
right_child=2 -3 4 -5 -6 -7
leaf_value=0.0094424334890633923 -0.034056513745513793 0.03811133822939422 0.024730392549773522 -0.028692026904619194 -0.00037217978355663693 -0.0092482366247792595
leaf_weight=9.32837061583996 4.2619518786668804 4.6626488119363776 7.6539761126041403 4.2370505332946768 67.950308173894882 16.41454453766346
leaf_count=40 19 19 33 18 278 69
internal_value=1.01398e-05 0.00848106 -0.00161289 -0.0032774 0.00239353 -0.0159277
internal_weight=114.509 18.2281 96.2808 13.5654 75.6043 20.6765
internal_count=476 77 399 58 311 88
is_linear=0
shrinkage=0.05


Tree=62
num_leaves=4
num_cat=0
split_feature=7 7 7
split_gain=0.598832 1.20631 0.983116
threshold=48.500000000000007 33.500000000000007 19.500000000000004
decision_type=2 2 2
left_child=1 2 -1
right_child=-2 -3 -4
leaf_value=-0.00077390942679697074 0.017910492378101755 -0.025729079335249535 0.019560805554150334
leaf_weight=102.01177956163883 3.5095294862985602 3.6112676411867133 5.2979627996683112
leaf_count=419 18 15 24
internal_value=5.16034e-06 -0.000671654 0.000355198
internal_weight=114.431 110.921 107.31
internal_count=476 458 443
is_linear=0
shrinkage=0.05


Tree=63
num_leaves=6
num_cat=0
split_feature=5 8 9 9 8
split_gain=0.593716 2.91687 0.849146 5.97373 3.43617
threshold=-1.0000000180025095e-35 -1.0000000180025095e-35 0.48940000000000011 0.46620000000000006 -1.0000000180025095e-35
decision_type=2 2 2 2 2
left_child=1 -1 3 -2 -4
right_child=2 -3 4 -5 -6
leaf_value=0.033581067570254509 -0.0023507147644032229 -0.011128120740323572 0.016857173983847114 0.051957370845931251 -0.020072684109040621
leaf_weight=5.7722851932048798 69.966702625155449 6.900325194001196 8.1485897600650805 4.447613298892974 19.130051866173744
leaf_count=24 294 29 33 18 78
internal_value=7.63815e-06 0.00983754 -0.00125251 0.0014748 -0.00865829
internal_weight=114.366 12.6726 101.693 74.4143 27.2786
internal_count=476 53 423 312 111
is_linear=0
shrinkage=0.05


Tree=64
num_leaves=6
num_cat=0
split_feature=9 9 4 4 5
split_gain=0.582772 2.54233 3.59399 2.14738 0.772375
threshold=0.30550000000000005 0.27620000000000006 0.17000000000000001 0.17000000000000001 1.0000000180025095e-35
decision_type=2 2 2 2 2
left_child=1 2 -1 -2 -5
right_child=3 -3 -4 4 -6
leaf_value=0.017718547770543675 -0.026378936095219286 0.036314188953833725 -0.030736360081418019 0.0061692922232801997 -0.0031563186648528377
leaf_weight=7.8117753118276614 6.9697491973638526 4.6500815600156775 5.7356717735528946 36.82153257727623 52.336286097764969
leaf_count=33 30 19 25 155 214
internal_value=3.4964e-05 0.00803645 -0.00315507 -0.00149543 0.000665342
internal_weight=114.325 18.1975 13.5474 96.1276 89.1578
internal_count=476 77 58 399 369
is_linear=0
shrinkage=0.05


Tree=65
num_leaves=5
num_cat=0
split_feature=8 8 9 4
split_gain=0.5751 0.753316 1.97173 1.70359
threshold=0.29799999999999999 1.0000000180025095e-35 0.48650000000000004 0.50500000000000012
decision_type=2 2 2 2
left_child=1 3 -3 -1
right_child=-2 2 -4 -5
leaf_value=-0.0015029115423783081 0.012790479774048808 0 -0.03146935352033145 0.018703167668729002
leaf_weight=71.093145832419395 7.2560979425907126 18.9135304838419 5.8096066564321509 11.155998736619948
leaf_count=298 30 79 24 45
internal_value=3.09893e-05 -0.000898644 -0.00839846 0.00136946
internal_weight=114.228 106.972 24.7231 82.2491
internal_count=476 446 103 343
is_linear=0
shrinkage=0.05


Tree=66
num_leaves=5
num_cat=0
split_feature=9 4 9 9
split_gain=0.582027 1.11505 0.757343 0.699477
threshold=0.70700000000000018 0.71000000000000008 0.57900000000000007 0.48940000000000011
decision_type=2 2 2 2
left_child=1 2 -1 -3
right_child=-2 3 -4 -5
leaf_value=0.0002827618439961305 -0.017185958218055825 0.030902336497014737 -0.017791827739483547 0.0030171669496565118
leaf_weight=96.007925614714622 3.6886793524026862 3.6999591588973981 5.1391395926475516 5.6621024161577225
leaf_count=402 15 15 21 23
internal_value=2.57346e-05 0.000794052 -0.000751822 0.0164389
internal_weight=114.198 110.509 101.147 9.36206
internal_count=476 461 423 38
is_linear=0
shrinkage=0.05


Tree=67
num_leaves=4
num_cat=0
split_feature=7 7 7
split_gain=0.551408 1.15762 0.889951
threshold=48.500000000000007 33.500000000000007 19.500000000000004
decision_type=2 2 2
left_child=1 2 -1
right_child=-2 -3 -4
leaf_value=-0.00068815570253205377 0.017260933793700525 -0.025187521351179229 0.018707986219658627
leaf_weight=101.82394282519817 3.481590047478675 3.6051030606031409 5.2632029950618735
leaf_count=419 18 15 24
internal_value=2.41229e-05 -0.000622945 0.000383145
internal_weight=114.174 110.692 107.087
internal_count=476 458 443
is_linear=0
shrinkage=0.05


Tree=68
num_leaves=4
num_cat=0
split_feature=9 9 9
split_gain=0.536261 1.12752 1.76482
threshold=0.70700000000000018 0.61100000000000021 0.57600000000000018
decision_type=2 2 2
left_child=1 2 -1
right_child=-2 -3 -4
leaf_value=0.0012215187314495045 -0.016504880850813759 0.023528097926736019 -0.026401678921804884
leaf_weight=101.11010427772999 3.682586506009101 4.1924588680267325 5.1247317194938651
leaf_count=423 15 17 21
internal_value=2.52746e-05 0.000764578 -0.000298166
internal_weight=114.11 110.427 106.235
internal_count=476 461 444
is_linear=0
shrinkage=0.05


Tree=69
num_leaves=7
num_cat=0
split_feature=9 9 4 9 9 7
split_gain=0.525164 2.33851 3.30912 2.10118 1.33295 0.966075
threshold=0.30550000000000005 0.27620000000000006 0.17000000000000001 0.39900000000000008 0.41280000000000011 7.5000000000000009
decision_type=2 2 2 2 2 2
left_child=1 2 -1 5 -5 -2
right_child=3 -3 -4 4 -6 -7
leaf_value=0.016948377767525617 -0.021158703118163674 0.034780288695662062 -0.029554471932774259 0.019125680141826012 -0.00022506867998063349 0.0052891229898493529
leaf_weight=7.7975095957517642 15.423927962780001 4.6371573358774176 5.7377856075763702 9.1609383523464185 67.765553310513496 3.5766385346651068
leaf_count=33 65 19 25 40 278 16
internal_value=1.38059e-05 0.00761685 -0.00309785 -0.00143866 0.00223105 -0.0159147
internal_weight=114.1 18.1725 13.5353 95.9271 76.9265 19.0006
internal_count=476 77 58 399 318 81
is_linear=0
shrinkage=0.05


Tree=70
num_leaves=5
num_cat=0
split_feature=8 8 9 0
split_gain=0.51287 0.677942 1.79068 1.27857
threshold=0.29799999999999999 1.0000000180025095e-35 0.48650000000000004 1.0000000180025095e-35
decision_type=2 2 2 2
left_child=1 3 -3 -1
right_child=-2 2 -4 -5
leaf_value=0.021098678091582595 0.012087568039913048 0 -0.030019173278723499 -0.00057444999913710399
leaf_weight=6.438088357448577 7.2405289709568015 18.877963274717334 5.7800113856792441 75.699278801679611
leaf_count=26 30 79 24 317
internal_value=2.41793e-05 -0.000851859 -0.00797804 0.00129754
internal_weight=114.036 106.795 24.658 82.1374
internal_count=476 446 103 343
is_linear=0
shrinkage=0.05


Tree=71
num_leaves=5
num_cat=0
split_feature=5 8 8 8
split_gain=0.503181 2.61116 0.732762 0.418769
threshold=-1.0000000180025095e-35 -1.0000000180025095e-35 -0.30499999999999994 0.050000000000000024
decision_type=2 2 2 2
left_child=1 -1 -2 -4
right_child=2 -3 3 -5
leaf_value=0.031643389537716712 -0.016298325626626548 -0.010701772868741985 -0.0016769555690824762 0.0063208068993752019
leaf_weight=5.7410432547330856 6.3947529792785636 6.890335485339163 75.125927969813347 19.845792546868324
leaf_count=24 28 29 313 82
internal_value=2.12979e-05 0.00908704 -0.00113728 0
internal_weight=113.998 12.6314 101.366 94.9717
internal_count=476 53 423 395
is_linear=0
shrinkage=0.05


Tree=72
num_leaves=4
num_cat=0
split_feature=9 9 9
split_gain=0.514759 1.04636 1.59912
threshold=0.70700000000000018 0.61100000000000021 0.57600000000000018
decision_type=2 2 2
left_child=1 2 -1
right_child=-2 -3 -4
leaf_value=0.0011653266815601299 -0.016185213867347607 0.022661702160107891 -0.025172246287034447
leaf_weight=100.97378644347191 3.6764944940805426 4.1980656385421744 5.1038098335266104
leaf_count=423 15 17 21
internal_value=1.99485e-05 0.000745744 -0.000278432
internal_weight=113.952 110.276 106.078
internal_count=476 461 444
is_linear=0
shrinkage=0.05


Tree=73
num_leaves=8
num_cat=0
split_feature=6 9 8 9 9 9 9
split_gain=0.488864 1.15336 3.85424 1.87531 0.709785 4.06398 2.90779
threshold=1.5000000000000002 0.45100000000000001 -0.040000000000000015 0.47800000000000004 0.40500000000000008 0.35300000000000004 0.42080000000000006
decision_type=2 2 2 2 2 2 2
left_child=1 2 -1 -3 5 -2 -6
right_child=4 3 -4 -5 6 -7 -8
leaf_value=-0.029497735042338546 0.0079257338381466137 0.038160611313465174 0.0065734790567890181 0.00092524723919685495 0.034870320743210337 -0.051050512890483096 -0.0046989824381556532
leaf_weight=8.3088011145591718 7.0835531353950483 4.6072743684053412 35.089058488607407 9.3806280642747861 4.2073364555835715 3.6115475445985794 41.650935187935829
leaf_count=36 29 19 151 38 17 16 170
internal_value=9.00917e-06 0.00327518 -0.000728816 0.0152511 -0.00321768 -0.0142242 -0.000295241
internal_weight=113.939 57.3858 43.3979 13.9879 56.5534 10.6951 45.8583
internal_count=476 244 187 57 232 45 187
is_linear=0
shrinkage=0.05


Tree=74
num_leaves=4
num_cat=0
split_feature=9 9 9
split_gain=0.479571 2.5407 1.20477
threshold=0.19300000000000003 0.24600000000000002 0.26800000000000007
decision_type=2 2 2
left_child=-1 -2 -3
right_child=1 2 -4
leaf_value=-0.013312065512109268 0.039827065102171516 -0.02421565259605428 0.00053929161167763672
leaf_weight=5.3408565819263449 3.0271098017692557 4.1525482088327399 101.25430437922478
leaf_count=22 15 17 422
internal_value=1.17677e-05 0.000829364 -0.000607362
internal_weight=113.775 108.434 105.407
internal_count=476 454 439
is_linear=0
shrinkage=0.05


Tree=75
num_leaves=4
num_cat=0
split_feature=7 7 7
split_gain=0.482486 1.14381 0.776441
threshold=48.500000000000007 33.500000000000007 19.500000000000004
decision_type=2 2 2
left_child=1 2 -1
right_child=-2 -3 -4
leaf_value=-0.00058405225043836877 0.016223972257417157 -0.025012800870202676 0.017613944664824962
leaf_weight=101.4732228666544 3.4351094514131537 3.6033658683300009 5.2029200196266165
leaf_count=419 18 15 24
internal_value=1.06368e-05 -0.000590719 0.000412424
internal_weight=113.715 110.28 106.676
internal_count=476 458 443
is_linear=0
shrinkage=0.05


Tree=76
num_leaves=7
num_cat=0
split_feature=9 8 8 9 0 8
split_gain=0.475768 3.03427 3.50601 1.94164 2.02928 0.434012
threshold=0.45100000000000001 -0.040000000000000015 -1.0000000180025095e-35 0.45640000000000008 1.5000000000000002 -0.23499999999999993
decision_type=2 2 2 2 2 2
left_child=1 5 -3 -2 -5 -1
right_child=3 2 -4 4 -6 -7
leaf_value=-0.014344057199204001 0.031953832754916048 0.04332102837067988 -0.0014706912026007865 0.0035422300126817375 -0.031412310106150212 -0.038808353001690547
leaf_weight=8.7159403115510923 4.4055498093366614 3.8061527311801902 45.851067364215851 43.759903833270073 3.5742739886045447 3.540081948041915
leaf_count=38 18 16 196 178 15 15
internal_value=1.16379e-05 -0.00288103 0.00265123 0.00355689 0.000204025 -0.0241821
internal_weight=113.653 61.9132 49.6572 51.7397 47.3342 12.256
internal_count=476 265 212 211 193 53
is_linear=0
shrinkage=0.05


Tree=77
num_leaves=7
num_cat=0
split_feature=9 9 4 9 9 4
split_gain=0.473124 2.10995 3.05322 1.83498 1.58984 1.12004
threshold=0.30550000000000005 0.27620000000000006 0.17000000000000001 0.40500000000000008 0.41280000000000011 0.17000000000000001
decision_type=2 2 2 2 2 2
left_child=1 2 -1 5 -5 -2
right_child=3 -3 -4 4 -6 -7
leaf_value=0.016359532400464137 -0.03476456679319425 0.033127300415129297 -0.028432180834986338 0.022538940489921184 -0.00027288600178705088 -0.0069024987049922468
leaf_weight=7.7416110932827014 4.2777111083269146 4.6039631366729727 5.7035224884748459 7.5525323003530493 67.603661686182022 16.128063082695007
leaf_count=33 19 19 25 33 278 69
internal_value=3.46686e-06 0.00724743 -0.0029482 -0.00137383 0.0022197 -0.0143281
internal_weight=113.611 18.0491 13.4451 95.562 75.1562 20.4058
internal_count=476 77 58 399 311 88
is_linear=0
shrinkage=0.05


Tree=78
num_leaves=5
num_cat=0
split_feature=9 4 9 9
split_gain=0.465977 1.02124 0.628217 0.623862
threshold=0.70700000000000018 0.71000000000000008 0.50900000000000012 0.57900000000000007
decision_type=2 2 2 2
left_child=1 3 -3 -1
right_child=-2 2 -4 -5
leaf_value=0.00015097682597717862 -0.01543039565483581 0.02815265057185411 0.0018940639586870656 -0.016273935097359925
leaf_weight=95.414551258087158 3.6681526601314536 4.1628889143466932 5.1563892215490341 5.1188589781522742
leaf_count=402 15 17 21 21
internal_value=0 0.000694508 0.0156997 -0.00078813
internal_weight=113.521 109.853 9.31928 100.533
internal_count=476 461 38 423
is_linear=0
shrinkage=0.05


Tree=79
num_leaves=7
num_cat=0
split_feature=5 4 7 8 7 7
split_gain=0.468046 0.941638 1.14511 1.05972 0.822896 0.986548
threshold=1.0000000180025095e-35 0.39200000000000007 4.5000000000000009 -0.067999999999999963 11.500000000000002 1.5000000000000002
decision_type=2 2 2 2 2 2
left_child=1 3 -3 -1 5 -2
right_child=4 2 -4 -5 -6 -7
leaf_value=-0.018345176786607031 -0.011660632194832604 0.01696748914264834 -0.0008739714229662565 0.0030942429227634564 -0.022442098822966022 0.0030970742309584147
leaf_weight=7.7330698668956783 14.970236733555792 17.593935325741768 16.262712836265564 15.498491346836088 4.0772525668144217 37.360201135277748
leaf_count=34 62 72 72 66 17 153
internal_value=0 0.00320626 0.00847486 -0.0042985 -0.00315921 -0.00117041
internal_weight=113.496 57.0882 33.8566 23.2316 56.4077 52.3304
internal_count=476 244 144 100 232 215
is_linear=0
shrinkage=0.05


Tree=80
num_leaves=4
num_cat=0
split_feature=9 9 9
split_gain=0.461384 2.42542 1.05311
threshold=0.19300000000000003 0.24600000000000002 0.26800000000000007
decision_type=2 2 2
left_child=-1 -2 -3
right_child=1 2 -4
leaf_value=-0.013107429375359024 0.039113525714015648 -0.022729287663661297 0.00045739869601302442
leaf_weight=5.3216469585895529 2.9814633727073661 4.1318893134593955 100.98378191888332
leaf_count=22 15 17 422
internal_value=0 0.000785833 -0.00061251
internal_weight=113.419 108.097 105.116
internal_count=476 454 439
is_linear=0
shrinkage=0.05


Tree=81
num_leaves=7
num_cat=0
split_feature=5 7 7 7 7 7
split_gain=0.429394 0.884358 3.22992 1.97837 0.760903 0.896902
threshold=1.0000000180025095e-35 12.500000000000002 6.5000000000000009 30.500000000000004 11.500000000000002 1.5000000000000002
decision_type=2 2 2 2 2 2
left_child=1 2 -1 -3 5 -2
right_child=4 3 -4 -5 -6 -7
leaf_value=0.0065337676015869281 -0.011136403716547703 0.029382281667667418 -0.025986093125839591 -0.0049695014930223507 -0.021606434937509439 0.0029375478494818334
leaf_weight=33.259195357561111 14.955353185534475 7.6647328585386258 8.8155941665172559 7.2369052469730377 4.0664625316858283 37.359402611851692
leaf_count=139 62 35 36 34 17 153
internal_value=0 0.00306036 -0.000608879 0.0131217 -0.00304056 -0.00112544
internal_weight=113.358 56.9764 42.0748 14.9016 56.3812 52.3148
internal_count=476 244 175 69 232 215
is_linear=0
shrinkage=0.05


Tree=82
num_leaves=4
num_cat=0
split_feature=7 7 7
split_gain=0.460311 1.07001 0.662929
threshold=48.500000000000007 33.500000000000007 20.500000000000004
decision_type=2 2 2
left_child=1 2 -1
right_child=-2 -3 -4
leaf_value=-0.00050383291759112262 0.015846875128422346 -0.024268854957762927 0.017375274396214804
leaf_weight=101.82616323232651 3.4135848879814139 3.5911951661109915 4.4473958164453498
leaf_count=422 18 15 21
internal_value=0 -0.000618594 0.000352769
internal_weight=113.278 109.865 106.274
internal_count=476 458 443
is_linear=0
shrinkage=0.05


Tree=83
num_leaves=6
num_cat=0
split_feature=9 9 4 9 4
split_gain=0.45436 1.82933 1.64463 1.37863 1.27409
threshold=0.45100000000000001 0.45640000000000008 0.39200000000000007 0.43900000000000011 0.44000000000000006
decision_type=2 2 2 2 2
left_child=3 -2 -3 4 -1
right_child=1 2 -4 -5 -6
leaf_value=0.0036062378402961638 0.031002615679579567 -0.025351470275690981 0.003529060211423336 -0.027923723665936619 -0.013222968590321025
leaf_weight=43.486487478017807 4.4038366079330435 4.552752658724784 42.706257149577141 4.055045783519744 14.015602439641951
leaf_count=189 18 19 174 17 59
internal_value=0 0.00343705 0.000175544 -0.00286582 -0.000566168
internal_weight=113.22 51.6628 47.259 61.5571 57.5021
internal_count=476 211 193 265 248
is_linear=0
shrinkage=0.05


Tree=84
num_leaves=5
num_cat=0
split_feature=8 8 4 4
split_gain=0.459231 0.671708 1.47992 1.08036
threshold=0.29799999999999999 1.0000000180025095e-35 0.50500000000000012 0.69500000000000006
decision_type=2 2 2 2
left_child=1 2 -1 -3
right_child=-2 3 -4 -5
leaf_value=-0.0014194896024098604 0.011417072537820138 -0.001998321145682352 0.017431798305582152 -0.026984251889257446
leaf_weight=70.405397146940231 7.1846960037946692 19.657695084810261 11.144636794924734 4.8291034549474707
leaf_count=298 30 83 45 20
internal_value=0 -0.000871019 0.00127612 -0.00798746
internal_weight=113.222 106.037 81.55 24.4868
internal_count=476 446 343 103
is_linear=0
shrinkage=0.05


Tree=85
num_leaves=4
num_cat=0
split_feature=9 9 9
split_gain=0.455284 1.01447 1.47478
threshold=0.70700000000000018 0.61100000000000021 0.57600000000000018
decision_type=2 2 2
left_child=1 2 -1
right_child=-2 -3 -4
leaf_value=0.00102337771256931 -0.015306592105134173 0.022238505502448727 -0.024316058019140219
leaf_weight=100.2676128745079 3.6621556133031836 4.1918255239725104 5.0807357132434836
leaf_count=423 15 17 21
internal_value=0 0.000644417 -0.00036883
internal_weight=113.202 109.54 105.348
internal_count=476 461 444
is_linear=0
shrinkage=0.05


Tree=86
num_leaves=5
num_cat=0
split_feature=1 8 0 8
split_gain=0.424561 0.637584 2.87713 0.744654
threshold=1.5000000000000002 -1.0000000180025095e-35 1.5000000000000002 0.3050000000000001
decision_type=2 2 2 2
left_child=1 2 -1 -3
right_child=-2 3 -4 -5
leaf_value=0.022103933823952465 -0.01078249376216165 -0.0029272783899171404 -0.0083657368211487743 0.015343680988013621
leaf_weight=14.592654302716255 7.4709670990705481 71.819779694080353 14.310305267572403 4.9939631521701804
leaf_count=60 31 302 62 21
internal_value=0 0.000846941 0.00707545 -0.00149324
internal_weight=113.188 105.717 28.903 76.8137
internal_count=476 445 122 323
is_linear=0
shrinkage=0.05


Tree=87
num_leaves=7
num_cat=0
split_feature=9 9 4 9 9 4
split_gain=0.447457 1.92956 2.87316 1.69899 1.47092 1.01665
threshold=0.30550000000000005 0.27620000000000006 0.17000000000000001 0.40500000000000008 0.41280000000000011 0.17000000000000001
decision_type=2 2 2 2 2 2
left_child=1 2 -1 5 -5 -2
right_child=3 -3 -4 4 -6 -7
leaf_value=0.016020101178035453 -0.033498152353630677 0.031842055648574258 -0.027585985409837418 0.021666154942652897 -0.00032134186811426802 -0.006775554508167048
leaf_weight=7.6802672445774096 4.2247357070446041 4.571513131260871 5.6546659618616104 7.5144040733575812 67.422643736004829 16.082856118679047
leaf_count=33 19 19 25 33 278 69
internal_value=0 0.00702891 -0.00275668 -0.00138478 0.00207392 -0.0138807
internal_weight=113.151 17.9064 13.3349 95.2446 74.937 20.3076
internal_count=476 77 58 399 311 88
is_linear=0
shrinkage=0.05


Tree=88
num_leaves=4
num_cat=0
split_feature=9 9 9
split_gain=0.441092 2.25563 0.931602
threshold=0.19300000000000003 0.24600000000000002 0.26800000000000007
decision_type=2 2 2
left_child=-1 -2 -3
right_child=1 2 -4
leaf_value=-0.012865132009758 0.038029109415330956 -0.021441154665948942 0.00040579894434302031
leaf_weight=5.3023036569356909 2.9142333269119254 4.1120891422033301 100.72799438238144
leaf_count=22 15 17 422
internal_value=0 0.000740447 -0.000598336
internal_weight=113.057 107.754 104.84
internal_count=476 454 439
is_linear=0
shrinkage=0.05


Tree=89
num_leaves=7
num_cat=0
split_feature=9 9 4 9 9 4
split_gain=0.426413 1.76097 2.65202 1.56063 1.34882 0.951984
threshold=0.30550000000000005 0.27620000000000006 0.17000000000000001 0.40500000000000008 0.41280000000000011 0.17000000000000001
decision_type=2 2 2 2 2 2
left_child=1 2 -1 5 -5 -2
right_child=3 -3 -4 4 -6 -7
leaf_value=0.015562593026000857 -0.032416589777003006 0.030606948926016359 -0.026430762159669347 0.020755155528090929 -0.0003255027797661608 -0.0064765670336727303
leaf_weight=7.640147730708124 4.1844374984502819 4.5559166818857184 5.6221476495265961 7.4892295300960532 67.422788754105568 16.080649554729462
leaf_count=33 19 19 25 33 278 69
internal_value=0 0.0068808 -0.00249366 -0.0013492 0.00196179 -0.0133404
internal_weight=112.995 17.8182 13.2623 95.1771 74.912 20.2651
internal_count=476 77 58 399 311 88
is_linear=0
shrinkage=0.05


Tree=90
num_leaves=4
num_cat=0
split_feature=7 7 7
split_gain=0.413754 1.03207 0.604409
threshold=48.500000000000007 33.500000000000007 19.500000000000004
decision_type=2 2 2
left_child=1 2 -1
right_child=-2 -3 -4
leaf_value=-0.00051455290184367162 0.01508494431067452 -0.023854298510824271 0.015711174389122052
leaf_weight=100.87907227873802 3.3704305291175833 3.5808479040861121 5.0665478110313407
leaf_count=419 18 15 24
internal_value=0 -0.000600603 0.000354296
internal_weight=112.897 109.526 105.946
internal_count=476 458 443
is_linear=0
shrinkage=0.05


Tree=91
num_leaves=5
num_cat=0
split_feature=8 8 4 4
split_gain=0.412975 0.570147 1.4209 0.973675
threshold=0.29799999999999999 1.0000000180025095e-35 0.50500000000000012 0.69500000000000006
decision_type=2 2 2 2
left_child=1 2 -1 -3
right_child=-2 3 -4 -5
leaf_value=-0.0015015506251549147 0.010835800436656273 -0.00170038168862547 0.016977678247087413 -0.025452645632595063
leaf_weight=70.131407186388969 7.1664697974920264 19.585617035627369 11.142862498760222 4.8122827261686316
leaf_count=298 30 83 45 20
internal_value=0 -0.000830499 0.00114678 -0.00739988
internal_weight=112.839 105.672 81.2743 24.3979
internal_count=476 446 343 103
is_linear=0
shrinkage=0.05


Tree=92
num_leaves=7
num_cat=0
split_feature=6 4 7 8 7 7
split_gain=0.417767 0.816064 1.05689 0.950557 0.710857 0.826959
threshold=1.5000000000000002 0.39200000000000007 12.500000000000002 -0.067999999999999963 11.500000000000002 1.5000000000000002
decision_type=2 2 2 2 2 2
left_child=1 3 -3 -1 5 -2
right_child=4 2 -4 -5 -6 -7
leaf_value=-0.017419548180706866 -0.010794395403956512 0.002059094801890492 0.021746787749910457 0.0029965239331887234 -0.021008254513567484 0.0027320918280057537
leaf_weight=7.6243525743484524 14.915767997503279 24.670670852065086 8.9505913555622083 15.328323721885679 4.0509988367557517 37.276198253035545
leaf_count=34 62 101 43 66 17 153
internal_value=0 0.00300392 0.00792148 -0.0040206 -0.00302814 -0.00116986
internal_weight=112.817 56.5739 33.6213 22.9527 56.243 52.192
internal_count=476 244 144 100 232 215
is_linear=0
shrinkage=0.05


Tree=93
num_leaves=6
num_cat=0
split_feature=5 8 8 7 8
split_gain=0.399925 2.33359 0.54551 1.31021 1.0254
threshold=-1.0000000180025095e-35 -1.0000000180025095e-35 0.050000000000000024 2.5000000000000004 0.040000000000000029
decision_type=2 2 2 2 2
left_child=1 -1 4 -4 -2
right_child=2 -3 3 -5 -6
leaf_value=0.029675711233492365 -0.0013440316062179013 -0.010584956778552708 -0.0036669200711774543 0.02149358719182384 -0.023645946389573486
leaf_weight=5.6284632235765457 75.973253831267357 6.8279484361410123 12.2931986451149 7.3712176084518424 4.6106925606727591
leaf_count=24 321 29 51 31 20
internal_value=0 0.00808877 -0.00108587 0.00610626 -0.00295554
internal_weight=112.705 12.4564 100.248 19.6644 80.5839
internal_count=476 53 423 82 341
is_linear=0
shrinkage=0.05


end of trees

feature_importances:
Column_9=157
Column_7=97
Column_8=70
Column_4=47
Column_5=28
Column_6=6
Column_0=5
Column_1=1

parameters:
[boosting: gbdt]
[objective: binary]
[metric: auc]
[tree_learner: serial]
[device_type: cpu]
[data_sample_strategy: bagging]
[data: ]
[valid: ]
[num_iterations: 300]
[learning_rate: 0.05]
[num_leaves: 8]
[num_threads: 10]
[seed: 42]
[deterministic: 0]
[force_col_wise: 0]
[force_row_wise: 0]
[histogram_pool_size: -1]
[max_depth: 3]
[min_data_in_leaf: 15]
[min_sum_hessian_in_leaf: 0.001]
[bagging_fraction: 0.8]
[pos_bagging_fraction: 1]
[neg_bagging_fraction: 1]
[bagging_freq: 0]
[bagging_seed: 400]
[bagging_by_query: 0]
[feature_fraction: 0.8]
[feature_fraction_bynode: 1]
[feature_fraction_seed: 30056]
[extra_trees: 0]
[extra_seed: 12879]
[early_stopping_round: 0]
[early_stopping_min_delta: 0]
[first_metric_only: 0]
[max_delta_step: 0]
[lambda_l1: 0.1]
[lambda_l2: 1]
[linear_lambda: 0]
[min_gain_to_split: 0]
[drop_rate: 0.1]
[max_drop: 50]
[skip_drop: 0.5]
[xgboost_dart_mode: 0]
[uniform_drop: 0]
[drop_seed: 17869]
[top_rate: 0.2]
[other_rate: 0.1]
[min_data_per_group: 100]
[max_cat_threshold: 32]
[cat_l2: 10]
[cat_smooth: 10]
[max_cat_to_onehot: 4]
[top_k: 20]
[monotone_constraints: ]
[monotone_constraints_method: basic]
[monotone_penalty: 0]
[feature_contri: ]
[forcedsplits_filename: ]
[refit_decay_rate: 0.9]
[cegb_tradeoff: 1]
[cegb_penalty_split: 0]
[cegb_penalty_feature_lazy: ]
[cegb_penalty_feature_coupled: ]
[path_smooth: 0]
[interaction_constraints: ]
[verbosity: -1]
[saved_feature_importance_type: 0]
[use_quantized_grad: 0]
[num_grad_quant_bins: 4]
[quant_train_renew_leaf: 0]
[stochastic_rounding: 1]
[linear_tree: 0]
[max_bin: 255]
[max_bin_by_feature: ]
[min_data_in_bin: 3]
[bin_construct_sample_cnt: 200000]
[data_random_seed: 175]
[is_enable_sparse: 1]
[enable_bundle: 1]
[use_missing: 1]
[zero_as_missing: 0]
[feature_pre_filter: 1]
[pre_partition: 0]
[two_round: 0]
[header: 0]
[label_column: ]
[weight_column: ]
[group_column: ]
[ignore_column: ]
[categorical_feature: ]
[forcedbins_filename: ]
[precise_float_parser: 0]
[parser_config_file: ]
[objective_seed: 16083]
[num_class: 1]
[is_unbalance: 0]
[scale_pos_weight: 1]
[sigmoid: 1]
[boost_from_average: 1]
[reg_sqrt: 0]
[alpha: 0.9]
[fair_c: 1]
[poisson_max_delta_step: 0.7]
[tweedie_variance_power: 1.5]
[lambdarank_truncation_level: 30]
[lambdarank_norm: 1]
[label_gain: ]
[lambdarank_position_bias_regularization: 0]
[eval_at: ]
[multi_error_top_k: 1]
[auc_mu_weights: ]
[num_machines: 1]
[local_listen_port: 12400]
[time_out: 120]
[machine_list_filename: ]
[machines: ]
[gpu_platform_id: -1]
[gpu_device_id: -1]
[gpu_use_dp: 0]
[num_gpu: 1]

end of parameters

pandas_categorical:null
